singapore 0.109441 0.295257 0.537623 -0.888996 0.795772 -0.523499 -0.258131 0.625760 0.434273 -0.789074 0.308306 0.218722 -0.477084 0.110014 0.495937 -0.612973 0.005662 0.148594 1.696828 -0.688523 -0.331951 -0.308822 0.487495 -0.364052 0.105078 -0.136445 -0.151967 0.076982 0.891850 0.809357 0.130288 0.570401 -0.057255 -0.699998 -0.627806 0.130709 0.038712 0.017782 -0.098674 -0.049714 -0.367335 0.697753 -0.169357 0.538136 0.150283 0.465918 -0.936559 0.348692 0.735435 -1.030848 0.537069 0.081829 -0.698376 0.452271 0.011933 0.154304 0.038675 0.491737 0.063025 -0.030736 -0.060702 0.155192 -1.249278 0.782793 -0.513219 -0.864836 -0.743371 0.561566 -0.194048 -0.358042 0.012904 -1.206846 -1.082731 0.424239 -0.234247 0.244797 0.345522 0.816310 0.676444 -0.315757 0.815544 0.237601 0.034943 -0.539740 -0.416745 -0.616999 -0.287760 0.442851 0.048489 0.532692 -0.181205 -0.407721 -0.242310 -0.741382 0.402474 -0.393116 -0.737265 0.254093 0.378283 -1.055753 -0.705038 0.178039 -0.209466 -1.145381 0.708684 1.085412 1.490805 -0.070234 -0.926507 -0.946817 -0.473563 -0.725794 0.739090 0.557798 0.496904 -0.095045 0.985454 0.386214 0.371981 0.397624 0.923926 0.460878 -0.641428 0.765581 0.127266 -0.197347 -0.444479 0.868388 -0.994310 1.172993 -0.162585 -0.514993 0.638841 -0.637181 0.811727 0.772209 0.406973 0.011319 0.733631 -0.134551 0.062643 0.397402 0.782534 -0.048835 -0.292263 -0.943074 -0.408715 0.704136 0.591915 0.612081 0.011651 -0.381132 0.184708 0.520206 1.175746 0.462900 0.830073 0.005545 0.592725 -0.252957 0.594693 -0.105465 -0.278563 -0.768387 0.728422 -0.172057 -0.687762 0.938437 -0.114287 -0.093856 -0.622790 0.152454 0.329944 0.223661 0.396940 -0.102680 -0.780240 0.024027 0.149792 -0.979314 -0.014560 0.734348 -0.645852 -0.011629 0.253924 -0.484976 0.263859 -0.412586 -0.725077 0.529584 -0.248883 0.241679 0.638337 0.863938 -0.629029 -1.153638 0.181148 0.083548 0.061936 0.466546 0.052038 0.590305 0.262563 -0.531509 0.275288 -0.378509 0.243412 -0.427426 0.470718 -0.213012 -0.245202 0.082695 0.538529 -0.385836 0.527660 0.968812 -0.198184 -0.334432 0.354589 -1.089132 0.504253 -1.007682 0.333903 -0.286431 0.293358 -0.712015 -0.058003 0.286103 0.955488 -0.402918 0.326544 -0.297736 -0.625305 -0.085410 -0.537461 0.514963 0.849447 0.705809 -0.217105 0.070514 0.487504 -0.565770 0.858161 0.391472 -0.176703 0.227908 0.231015 0.041132 0.242774 -0.339274 0.215423 -0.368255 -0.281647 -0.566631 0.209396 0.506093 -1.001835 -0.012764 0.832344 -0.777246 0.137434 -0.997052 -0.677331 0.167591 -0.424822 0.611942 0.820383 0.927707 -0.126886 -0.265233 0.790378 -0.837698 -0.581838 1.118921 -0.564377 -0.474322 -0.557590 -0.353952 0.366060 -0.436196 -0.236102 -0.194917 0.745713 0.390943 -0.840653 -0.636015 0.291927 -0.055695 -1.110445 -0.337235 0.440788 -0.182576 -0.099394 -0.077858 0.422261 0.339778 -0.468129 -0.926128 0.063742 0.289209
play -0.033694 0.156811 0.517057 -0.451183 -0.020219 0.064383 -0.524204 1.045549 -0.140220 -0.947578 -0.450323 -0.114748 0.309788 -0.167812 -0.217193 -0.419970 0.709768 -0.205133 0.951063 0.377451 -0.648157 0.155943 -0.518933 0.150472 0.622389 -0.841263 0.561662 0.787171 0.441183 0.275510 0.430676 0.508474 -0.023626 -0.552840 -0.404406 -0.386655 -0.085154 -0.142428 0.067419 0.176430 0.071483 -0.115202 -0.050969 0.158882 0.057229 0.065635 0.043902 -0.438523 0.490949 -0.672555 0.138145 -0.297585 -0.619062 0.459626 0.138685 -1.015888 0.409729 -0.237741 -0.303534 0.691484 -0.254225 0.787144 -0.338490 -0.632580 -1.012461 0.202106 0.053090 -0.415333 -0.387685 -0.773098 -0.122986 0.008181 -1.128999 0.018544 0.135860 0.317749 0.425309 0.115507 -0.046651 -0.251885 -0.723862 0.125186 -0.302471 0.159220 0.380190 -0.940683 0.335295 0.544244 0.439682 0.428171 0.704008 -0.047316 0.371582 -0.657943 -0.065346 -0.144540 -0.633945 -0.472578 1.393629 -0.471405 -0.574219 -0.141410 0.456107 -0.107939 -0.141379 0.228948 1.101317 0.778898 -0.755254 -0.352019 0.081807 0.128688 0.400548 -0.062032 -0.243087 -0.324665 -0.132484 0.224309 0.112459 0.446443 -0.175742 0.052714 0.141905 0.668828 0.278697 0.537730 -0.577930 0.267177 -0.552251 0.304929 -0.184898 0.291597 0.224722 0.331127 0.794449 -0.279823 -0.509279 -0.289960 -0.318105 -0.549547 -0.200990 0.811375 0.201960 -0.863471 0.271298 0.238414 0.351038 -0.317754 -1.128346 -0.643863 -0.059001 -0.062931 0.008095 0.700864 1.083188 0.477751 0.663113 -1.081012 -0.383173 0.195574 0.650042 -0.300621 -0.572751 -1.348456 -0.520428 1.171667 1.281829 0.130409 0.008459 -0.122237 -0.533158 0.403562 -0.042816 0.064753 -0.234479 -0.902331 -0.758440 0.706731 0.443821 -0.700133 0.038218 0.572667 0.703959 1.203943 -0.182773 0.702255 -0.934462 -0.089976 0.182417 -0.586037 -0.402064 0.576143 0.104096 -0.232017 0.187452 0.038823 0.540953 0.127026 -0.001731 0.083062 1.016094 -0.228128 0.409409 -0.343711 0.096298 -0.489172 0.209918 -0.097106 0.728630 0.555841 0.256679 -0.438061 0.989978 -0.987558 0.091621 0.200836 0.498482 -0.480078 1.130472 0.310595 0.087358 0.260310 -0.059227 -0.369347 -0.660553 -0.051674 -0.070118 0.191376 -0.316640 0.698767 -0.413140 0.377853 0.004307 -0.394688 -0.687745 0.044283 0.507851 0.414549 -0.161682 -0.581591 0.583142 -0.179978 0.321155 0.497573 0.668409 -0.273121 -0.249046 0.560187 -0.812966 -0.594638 -0.751089 1.006442 0.079959 0.680430 -0.099155 0.186727 -0.061949 0.975583 -0.199882 -1.623427 0.071263 -1.056148 -0.379407 0.741992 -1.065336 0.065183 -0.427344 0.162365 -1.073264 0.006517 -0.132455 -0.490860 0.513161 0.524071 -0.095173 0.005197 1.020583 -0.483232 -0.668963 0.081973 -0.241435 -0.038876 0.043608 0.711632 -0.241319 0.592139 -0.033697 -0.370488 -0.002020 -0.044444 0.834588 0.408514 -0.236809 -0.077872 -0.813484 0.018177 0.150841 0.444122 0.528070 -0.088512
worth_it -0.413511 0.732436 0.649847 -0.412557 0.025746 0.319165 -0.495262 0.888577 0.112376 0.177155 -0.479942 -1.121038 -0.090860 -0.375147 -0.471705 -0.061360 -0.866427 -0.394053 0.999513 0.062582 -0.145123 0.031125 0.609108 0.001071 0.358159 -0.284245 0.258840 -0.391296 0.156231 -0.759397 0.159801 0.023250 0.018989 -0.372678 0.075870 0.373763 -0.183866 0.108592 0.382753 0.269270 -0.438550 0.280514 0.293632 -0.933489 -0.806015 -1.075530 -0.286196 0.211553 0.174520 -0.636387 -0.360247 -0.342876 -0.158935 -0.025219 -0.069120 -0.965419 -0.331132 -0.016681 -0.431498 -0.017952 -0.287930 0.647853 -0.645401 -1.030420 -0.029364 0.324656 -0.563412 -0.450022 0.414555 -0.478670 -0.174477 -0.640093 -0.620520 -0.168373 -0.313914 0.124475 0.593104 -0.000351 0.623988 -0.215087 0.372515 0.268466 -0.029718 -0.740605 -0.225129 -0.692793 -0.213593 0.294157 0.153742 -0.318214 1.015142 -0.452187 -0.378048 -0.090822 -0.336637 0.636889 -0.684454 -0.538819 0.185204 0.239957 0.366209 0.291113 0.928014 -0.707022 -0.185002 0.808322 0.438910 -0.380887 -0.517109 -0.339453 -0.195171 0.070155 1.234843 -0.432743 0.286306 0.303044 0.271081 0.056926 0.061932 0.388048 0.081203 0.416131 0.307586 0.673832 0.691343 -0.340636 -0.197025 -0.406493 -0.345006 0.095589 -0.419142 -0.305048 -0.164687 -0.703577 0.990323 -0.236855 0.030846 -0.440833 -0.882971 -0.094931 0.491688 0.097720 -0.304185 0.206193 -0.272900 -0.282020 -0.347168 0.399508 0.455793 0.129190 0.401910 0.198725 0.503558 1.051476 0.711239 0.332185 0.240249 -0.079376 0.287368 -0.743168 0.894584 0.065103 -0.090633 -0.417583 0.540711 0.368654 0.655434 0.248361 0.237557 0.159842 -0.270107 0.835279 -0.452375 0.349549 0.756906 0.170540 0.026018 0.046493 0.078711 -0.144067 0.687310 0.284793 0.328104 0.724397 -0.425257 -0.561807 -0.041097 -0.541884 -0.003165 -0.059452 -0.198818 0.248208 0.434424 0.589577 -0.481373 -0.255315 -0.134255 0.036839 -0.073637 0.847640 0.588634 -0.219679 0.181035 -1.403222 -0.807058 -0.146486 -0.449418 -0.566339 0.293921 0.795140 0.030900 -0.169274 0.166895 0.364479 -0.357513 0.121130 0.461969 -0.556726 1.392979 -0.591714 0.023312 -0.722510 0.170975 -0.190691 0.007603 -0.276381 0.504557 0.503656 -0.305847 0.302322 0.225158 0.255524 -0.398769 -0.192485 -0.137594 -0.139996 0.843978 0.015344 0.234676 -0.473391 0.257705 0.144524 0.377482 -0.582723 0.413485 -0.243415 0.683279 0.239769 0.431052 -0.794788 -0.741698 -0.019681 -0.469406 -0.758253 0.305736 0.015266 -0.012753 0.877469 0.235264 -0.690985 0.185529 -1.474194 0.157987 0.482054 0.483020 0.010796 0.222062 0.636635 -0.458451 0.729425 0.342270 0.151672 0.300009 -0.011098 -0.613798 0.012932 -0.831434 -0.456393 0.179356 0.440884 -0.939394 0.250684 0.375071 0.488403 0.256619 -0.617862 -0.319217 -0.240055 1.045179 0.388752 0.361963 0.288443 0.524482 0.170921 -0.226716 -0.039150 -0.143796 -0.206068 0.843440 -0.398709
tickets -0.733382 0.505235 -0.195220 0.024672 -0.275594 0.604765 -0.188473 0.353937 0.364895 0.082199 0.348527 -0.431331 -0.455071 0.215223 -0.470328 -0.181636 0.308299 -0.413001 0.470743 0.702056 0.216067 0.550918 -0.289085 -0.667679 0.466656 -0.552051 0.335078 0.520908 0.332582 -0.140958 0.695896 -0.329282 -1.055400 -0.642890 0.173453 0.691729 0.328360 0.236239 0.213288 0.736466 -0.114880 -0.556022 0.312605 -0.376259 0.066702 0.540089 0.376962 -0.285015 0.402898 -0.235230 0.233163 0.032595 0.109861 0.547700 0.188284 -0.057788 0.212481 -0.707004 0.214770 0.109457 -0.401426 0.002395 -0.219379 -0.086498 -0.066815 0.497199 0.072405 0.699609 0.033016 -0.636901 -0.010994 -0.040640 -0.564456 0.336667 -0.070146 -0.103135 -0.170682 -0.978151 0.052843 0.136272 -0.852482 -0.504915 0.200548 -1.078737 -0.575101 -1.035328 -0.210958 0.470572 -0.117290 0.288690 0.686661 -0.436921 -0.222720 -0.429909 -0.812259 -0.442887 -0.311820 -0.451261 0.179294 -0.227312 -0.562824 0.450482 -0.021873 0.243133 0.417570 -0.052084 0.638645 -0.502762 -0.891619 -0.464610 0.146143 0.064423 -0.381440 -0.188288 0.445669 0.281262 0.071881 0.954397 0.527928 0.613355 -0.283544 -0.621352 -0.450396 0.343947 0.849768 0.155120 -0.099723 -0.194688 -1.172173 0.639367 0.394714 0.759046 0.484350 0.221321 0.209020 0.258600 0.032380 -0.277367 0.498668 0.378283 0.790228 0.303900 -0.462218 -0.005315 0.766134 -0.601087 -1.032508 0.604599 -0.099732 -0.154769 -0.164257 0.539780 -0.515651 0.795604 -0.032855 0.599347 0.236024 -0.681054 0.099305 -0.332107 0.717026 0.557002 -0.437369 -0.975591 -0.411095 0.931983 -0.085757 -0.163258 0.031633 -0.232150 0.310981 0.013549 -0.541419 1.088877 -0.031542 -0.332401 0.143558 -0.642089 -0.061853 -0.714138 -0.199078 0.140305 0.440078 0.597924 -0.288145 0.486995 -0.610546 -0.373667 0.512669 -0.943244 -0.468037 -0.206089 0.261815 0.024142 -0.117149 0.041823 0.356789 -0.002730 0.483879 -0.395029 0.470414 -0.605117 0.429747 -0.441268 -0.721992 -0.499867 0.634765 0.175991 0.123848 0.908392 -0.577511 -0.120292 0.440287 -0.244744 0.263279 0.567101 -0.194382 -0.925853 0.573779 -0.145172 0.217271 -0.407794 -0.134831 -0.295381 0.272782 0.348773 -0.065012 0.241833 -0.254213 -0.229942 0.341285 -0.471682 0.094051 0.337770 0.058665 -0.251241 0.211916 0.454709 -0.240743 -1.312782 0.407547 0.083437 0.712157 0.087862 0.092766 -0.659390 0.945350 0.343162 -0.347583 -0.562357 0.345770 -0.435495 -0.272961 0.273235 -0.295956 -0.027520 0.469161 1.197946 -0.456520 -0.682337 0.125036 -0.498805 0.315104 0.256627 0.076844 -0.165293 -0.250208 1.010298 -0.595469 -0.145229 0.333710 -0.792719 -0.050214 -0.202877 -0.503297 -0.305429 -0.453764 0.143328 0.424929 -0.664614 0.215486 0.082047 0.118898 0.530333 -0.588377 -0.129734 0.359172 -0.661751 0.648750 -0.021078 -0.660591 0.075626 0.338854 0.366174 -0.609640 -0.023306 -0.221682 0.705237 0.289914 -0.202933
time 0.680148 0.757347 -0.064182 -0.359637 0.362132 0.905252 -0.622642 0.050500 0.362557 -0.401701 0.228491 -0.817692 0.437211 0.044354 -0.866219 -0.028671 0.124536 -0.079057 0.347633 0.562128 -0.404807 0.359773 0.535886 -0.144808 0.495647 -0.340941 -0.773965 0.064703 -0.392116 -0.342623 0.525763 0.713207 -0.523982 -0.754542 -0.543062 -0.345724 -0.456794 -0.347038 -0.162987 0.689088 -0.201049 1.135619 0.450140 -0.240084 0.349508 0.010361 -0.181234 -0.338792 0.190834 0.061630 -0.012957 -0.459171 -0.877777 -0.041993 0.228521 -0.824647 0.332373 -0.089351 0.621370 -0.136854 -0.213690 1.358204 -0.569224 -0.119158 -0.093972 -0.047244 -0.084030 -0.558684 0.156987 -0.436616 -0.328690 -0.073177 0.105908 -0.194645 -0.156401 0.040322 0.727989 -0.328508 0.713189 -0.339952 0.045206 0.266652 -0.363496 -0.391594 -0.012304 -0.726088 0.376180 -0.148531 -0.378238 0.259681 0.402231 0.143050 0.315013 -0.508886 -0.443754 -0.976190 -1.252942 -0.307762 0.050598 -0.358630 0.009873 0.476248 0.568408 0.115522 0.050337 -0.178675 0.838834 -0.726002 -0.952564 -0.482850 1.005796 0.095696 -0.084076 -0.029265 -1.145056 1.076354 -0.096334 0.067309 -0.329776 0.631972 -0.016399 0.185266 -0.243572 0.643434 0.472068 0.135559 0.180455 -0.215621 -0.674988 -0.147064 -0.949848 0.293245 0.361934 0.460098 0.878199 -0.136071 -0.023032 -0.003354 -0.183711 0.403816 0.532160 0.488182 0.546737 0.416822 0.400264 -0.940188 -0.253516 -0.468161 0.015779 -0.590681 -0.516623 -0.928898 -0.044647 0.283806 0.166808 -0.431746 0.538570 -0.230407 -0.415619 -0.253026 0.487550 1.096942 -0.322857 -1.301329 -0.191372 0.621821 -0.023765 -0.233062 0.317269 -0.750581 -0.205556 -0.213198 -0.212262 -0.053284 0.382356 -0.179494 -0.292049 -0.357241 -0.374884 -0.248172 -0.172146 1.179355 0.347103 0.122056 -0.020796 0.251157 -0.048198 -0.239026 0.159322 -0.391803 -0.120625 0.047352 0.831035 -0.042695 0.107946 0.036369 0.264808 0.057101 -0.002069 0.086571 0.498324 0.278115 0.650305 -0.739548 -0.541318 0.263244 0.070637 0.617076 0.468097 0.144207 -0.879955 0.087385 0.851862 0.097145 -0.364411 0.359656 0.641755 -0.382595 0.215199 -0.518010 0.344200 -0.602624 0.577927 -0.403821 -0.863956 0.715818 0.214761 0.801912 -0.173439 -0.682369 0.415024 0.432787 -0.302069 0.249897 -0.093772 0.923639 -0.584034 0.017344 -0.248285 -0.292908 -0.386255 0.202248 0.873412 0.212084 -0.174802 0.085684 0.930580 0.490534 -0.592248 0.178581 0.066156 -0.727041 -0.195142 -0.133992 -0.032561 0.309056 -0.237474 0.216057 0.164194 -1.370577 -0.253634 -0.624987 -0.577913 0.490891 -0.369594 -0.162567 0.155010 0.570052 -0.446376 0.417348 0.024941 -0.805242 -0.320207 -0.179603 -0.372522 -0.267855 -0.159816 -0.056413 0.524778 0.253047 -0.081848 0.409595 -0.048115 0.333452 -0.044015 0.576171 0.662514 -0.376551 0.278306 -0.876381 0.287322 0.047993 0.465686 -0.212685 -0.525682 -0.194630 0.532594 -0.496485 0.653539 0.525584
sit -0.269017 -0.023832 0.050094 -0.255267 -0.107515 0.860955 -0.555432 0.459864 -0.027403 0.238127 -1.010131 -1.306076 -0.129865 0.189435 0.115503 0.430722 0.133688 0.256387 0.866400 -0.006548 -0.086304 0.793843 0.124056 -0.702815 -0.119541 0.291951 -0.229086 0.359876 0.894478 0.227804 0.780593 0.020109 0.244453 -0.131896 0.112698 0.361427 -0.154301 -0.233485 0.300891 0.010630 -0.096001 -0.133766 0.512163 -0.260969 -0.306336 0.067264 -0.546576 -0.157077 0.649924 0.308328 0.535818 0.385526 -0.187799 -0.292634 0.096453 -0.654933 0.199541 -0.363304 -0.562245 -0.084104 0.013723 0.074698 -0.627869 -0.830267 0.459338 0.475308 0.602498 -0.142372 -0.256310 -0.914481 -0.027584 0.715708 -0.100825 0.126265 0.002030 0.621807 1.133271 -0.097548 0.168647 -0.360748 0.291849 0.328940 0.341339 -0.003609 0.364826 -1.098304 0.136149 0.101103 0.345536 -0.013797 0.228509 0.414329 0.091476 -0.589426 -1.143272 -0.015007 -0.061298 -0.755405 0.296330 -0.608107 0.433793 0.557027 0.603746 -0.176294 1.227612 0.171856 1.481184 -0.612984 -1.145020 -0.306150 0.435620 -0.022483 -0.157088 0.380002 0.149325 0.383232 0.557263 0.218578 -0.099619 0.474785 0.410596 -0.043962 -0.654682 0.126685 0.634644 -0.694728 -0.463482 0.430412 -1.707561 0.098157 -0.248477 0.059755 -0.105843 -0.424351 0.364133 -0.004237 -0.157847 -0.560179 -0.344268 -0.402733 0.217905 0.830933 -0.145395 -0.202437 0.104634 -0.684582 -0.172664 0.939341 0.292000 0.117678 0.442640 0.120779 0.222221 0.139492 0.203615 0.420231 0.619283 -0.487415 -0.749263 -0.045095 0.919371 0.332730 -0.272724 -0.421174 -0.420088 -0.411530 -0.321871 -0.439093 0.415210 0.309792 -0.026656 -0.185932 0.011413 0.276983 0.242096 -0.243305 -0.716972 -0.029289 -0.080981 -0.742413 0.501979 0.388450 -0.317477 0.248838 0.511565 0.396382 -0.819920 -0.052859 -0.320649 -0.160545 -0.571704 0.120372 0.709359 -0.249866 0.316592 -0.343980 0.411670 -0.359781 0.508245 -0.198490 0.292946 0.289693 -0.395312 -0.197074 0.025418 0.589511 0.099252 0.053018 0.039435 0.952044 0.128605 0.037530 0.812720 -0.773495 0.123876 -1.154608 0.383415 -0.217182 0.515651 -0.833994 -0.067677 -0.257585 -0.851419 0.706206 -0.613104 0.490386 -0.270484 -0.297445 -0.139656 0.133805 0.452996 -0.295577 -0.109806 -0.138407 0.494056 0.154161 0.743944 -0.653766 -0.408344 -0.650926 0.231611 -0.624345 0.409641 1.239250 -0.420610 0.729497 -0.535238 -0.031507 0.705958 -0.015333 0.031100 -0.153528 -0.311973 0.696855 0.120250 0.880274 0.010850 0.228048 -0.292689 -0.555336 -0.114206 -1.329443 0.092109 -0.093830 -0.031495 -0.236657 -0.297801 0.454793 -1.020601 0.022599 -0.341308 -0.345129 0.013920 0.052731 -0.353544 0.565439 0.133670 -0.149314 0.263464 -0.363234 -0.440700 -0.260633 0.238849 0.570067 -0.317903 0.477492 -0.070534 0.099405 0.000731 0.332983 -0.315886 -0.394696 0.269403 -0.197011 -0.963837 -0.095715 0.380828 -0.417508 0.910612 0.948040
children 0.114764 -0.200110 -0.099276 -0.511566 -0.263102 -0.038667 -0.882489 0.145345 -0.070480 -0.226445 -0.272338 0.182976 -0.762374 -0.190631 -0.250981 -0.662152 -0.170434 -0.206450 1.118006 0.358093 -0.891859 0.345134 -0.185997 -0.036809 0.200684 -0.090328 -0.215746 0.040287 0.432985 -0.220545 0.257100 -0.042218 -0.073430 -0.223802 0.545498 -0.214146 0.025739 -0.174091 -0.276865 0.268839 -0.042162 0.377710 -0.084137 -0.723559 -0.393270 0.385130 0.416962 0.205552 0.396844 -0.722858 0.344427 -0.313787 -0.290593 0.256616 0.120316 -0.818129 0.272300 0.025389 -0.510110 -0.721335 -0.743933 0.521249 -0.395091 0.332311 0.207249 -0.278355 0.581378 -0.197366 -0.470720 -0.344710 -0.263624 0.606907 -0.800462 0.247605 -0.014558 0.331258 -0.336831 -0.016098 -0.110325 -0.317098 -0.168970 -0.603392 -0.213061 -0.117098 -0.446272 -0.393324 0.008220 0.247297 0.126752 0.118810 0.463732 -0.068708 -0.299859 -0.381996 -0.634653 0.029412 -0.612004 0.019740 0.966803 0.093238 -0.176580 0.069721 0.937428 -0.389360 -0.169919 -0.293935 0.780630 0.708432 -1.163869 -0.501010 0.233942 -0.390981 -0.353351 -0.250233 -0.811179 0.483804 -0.227223 -0.104776 0.230738 0.884362 -0.463940 -0.178744 -0.166143 0.126191 0.226104 -0.386941 -0.584906 0.234085 -0.501598 -0.022267 -0.499140 0.127009 -0.062246 -0.670682 0.432186 -0.206271 -0.159963 -0.303342 0.584657 -0.453807 0.225748 0.170131 0.427431 -0.109219 -0.057028 0.215417 -0.347639 0.699385 -0.385361 0.384228 -0.468361 0.099986 -0.008572 0.225942 0.197285 0.342736 0.724679 -0.558376 0.231505 -0.290033 0.235182 0.186013 -0.609160 -0.771480 -0.467979 0.689763 0.033897 0.841077 0.116110 -0.303509 -0.140112 0.327243 -0.199717 0.061375 0.658226 -0.500995 -0.317190 -0.162566 -0.230871 -0.404082 0.535917 0.208646 0.066752 0.783862 -0.875939 -0.249339 0.001246 -0.239212 0.085601 -0.726645 0.059358 0.075258 0.136997 -0.233007 0.169209 0.213555 -0.080370 -0.679511 -0.281190 0.040403 0.665773 0.532178 -0.008421 -0.624333 -0.909744 -0.927791 -0.272875 -0.214579 0.320903 0.327202 0.066429 -0.383820 -0.397929 0.419121 -0.326798 -0.364281 -0.062817 -0.358711 1.304719 -0.476045 -0.063917 0.628159 -0.474332 -0.028766 0.460730 -0.354696 -0.277558 -0.160039 -0.018067 0.467629 0.206396 0.445775 -0.142360 0.250544 0.010429 -0.301659 0.118428 -0.199671 -0.162798 -0.449289 -0.467860 -0.153333 0.536987 -0.064885 0.050183 -0.243022 -0.163842 -0.308688 -0.220577 -0.349821 -1.115717 0.285674 0.223315 0.366449 0.441426 0.582599 0.085960 0.797474 0.282381 -0.558535 0.055719 -1.324226 -0.462933 0.216888 -0.746104 0.064552 -0.157157 0.085144 -0.802164 0.210009 0.220966 -0.304578 0.081079 0.475192 -0.037889 -0.566625 0.040526 -0.830949 0.075155 -0.090503 -0.358797 -0.059707 0.192973 0.328903 0.301989 0.236774 -0.027178 -0.524332 -0.118485 0.001346 -0.128555 0.118255 0.264470 -0.380089 -0.909305 0.181178 -0.036378 0.215596 0.046530 -0.715593
